const model = {"neuronCounts":[4,8],"classes":["car","fish","house","tree","bicycle","guitar","pencil","clock"],"network":{"levels":[{"inputs":[0.386,0.2097902097902098,0.050381345017563015,0.7645820602428008],"outputs":[-0.22097762932061715,0.9675907074824165,-1.8192482114342434,0.5414733446663487,0.22508144996891988,-1.0366266252661798,0.41080505455964733,0.8152824572549208],"biases":[-0.8928495150132219,0.9100391929192688,-0.841111677126742,-0.5140209513532672,-0.3907939422911175,-0.4301959917589935,0.9553387159164095,-0.01840739044079287],"weights":[[0.6781412706965755,0.19539926941080887,-0.8640357566441152,0.8235565135822975,-0.2626469969513461,-0.6031020825974016,-0.9929136221613426,0.5910572945227157],[0.042357994376034824,-0.8096655993104989,-0.9333053624791106,0.017100232558004524,0.4269974791631488,0.22391764097395717,0.6191801776288024,-0.6228376890688083],[-0.042246694151692576,0.504849324292787,-0.6326767010127696,0.878731042032566,0.07629235716621308,-0.7909883526393648,0.9011302891718054,-0.46036179685890977],[0.5275450849881373,0.1655183022219675,-0.545324462830516,0.9021168615645045,0.8159144233426434,-0.4979948146836368,-0.44019748313585927,0.9932231835837722]]}]}};