const model = {"neuronCounts":[5,10,8],"classes":["car","fish","house","tree","bicycle","guitar","pencil","clock"],"network":{"levels":[{"weights":[[-1.2124941769396829,1.7543606100288112,1.4530698983771946,-2.6054734676926774,0.7268210161794993,0.07642923305592927,-0.1506029385674961,1.063110984839874,0.18700625170470228,-1.5343740999022488],[0.768615972556815,-1.226499909736559,-0.8537710354845662,2.199629624909468,-2.55022872884534,1.3693497945728177,-2.016652298571544,-0.8923373786150987,-0.7341744225332353,-0.8338926862786842],[4.1167225670092416,3.753032509742693,1.8374693635927624,0.6036884816755546,3.3525441341120765,3.8592665353532554,-5.082639123595291,-7.265901619371945,6.91512136886091,7.119499549106681],[-2.0764648619467625,-1.6895151798604677,1.7059742596314924,1.5721141286098852,1.5349969903140155,1.084105915038495,1.4115832280701064,2.1854563714322306,0.12012122547253498,-0.3487015723451147],[0.28812914708332976,1.3929997872258248,1.6286152775660068,-0.10255654127061523,-0.35386152934386406,1.5520690700360977,0.8829172937437683,0.8475727298458866,-5.34894671647964,-1.365722355414368]],"biases":[0.7231633094443504,1.1502988956136433,-1.783716882234137,-1.4296435651928485,-0.7006767337117917,-0.1327526224437235,-0.3778387309342327,-1.8215770028708451,0.42357157160358,0.2660704771969471],"inputs":[0.386,0.2097902097902098,0.050381345017563015,0.7645820602428008,0.21532825264972671],"outputs":[-0.7171687010278658,0.6454363223524001,0.3325331625729821,-0.6431655643646719,0.3015316770525958,0.9123808826806872,0.15306032219753152,-0.11056474605652442,-0.35382579170963685,-0.6063571149576048]},{"weights":[[-0.6665685379993626,-1.5359889070014774,-0.5171647792144487,-1.330757150170101,-0.9459327660200815,1.1388688266527414,1.9223788661537127,0.981533847674583],[0.9454610914043396,1.589754736040524,-0.7328565377675575,-1.2506968661785045,1.276250152252488,1.9816653856891588,0.2754736534727505,-2.9297255857586837],[5.681686687076535,-1.8389058687752793,-3.176782899866847,-0.5024207740438661,-2.623788801878316,-0.5380774401473878,0.2429736303278663,5.793740594144924],[-1.2385136983325347,-1.3563189283037755,-0.8066284049275335,2.86528947211849,-3.119802098332379,-0.25024232337851365,-1.8458813861654317,6.144343103529681],[3.7573247831408016,0.8319754958247567,-1.0857381400554555,-3.735588463207693,0.3492018955925797,0.9003260320591286,-2.960134446326293,3.098304431582895],[-0.6338739583646928,-0.5189033875341235,-0.2607559107780915,0.31078529660546483,0.23931901832307723,-1.8429209371628807,-0.05105494046677713,4.063482661001604],[0.9386495066731418,1.1580729667786749,1.7405214118643542,-1.3154786233102116,3.917892839357397,-1.683075103050171,-2.341303267691602,-0.31005370756950373],[1.271458803862691,-0.21089176694277587,0.36560251872356475,2.908064671763118,1.6068039387414979,-5.706712507343984,-0.6366640373174601,2.132708908695329],[1.9254318119670086,0.7701177304719077,-2.6327758970486648,2.5231580804635665,-1.6048814064051127,-2.385218466454125,0.7894312595542154,1.8367581709342542],[-0.25359024296914545,0.9557122274844755,-1.2812011958867386,-0.602141996348294,-0.6915291734768079,-2.9029157505035426,2.815676211492521,1.6428245175793672]],"biases":[-0.9876720901177167,1.0581759239776904,0.2349389384831088,-0.20272426472492658,-1.1121663129371036,-2.138133681592806,-0.9320663820551106,1.4561460182947583],"inputs":[-0.7171687010278658,0.6454363223524001,0.3325331625729821,-0.6431655643646719,0.3015316770525958,0.9123808826806872,0.15306032219753152,-0.11056474605652442,-0.35382579170963685,-0.6063571149576048],"outputs":[0.9928731517439449,0.9884146598805665,0.7462017885967573,-0.9992718382464241,0.9970383880189726,-0.12563433244846475,-0.9994269302199034,-0.42317959664087135]}]}};