const model = {"neuronCounts":[5,10,8],"classes":["car","fish","house","tree","bicycle","guitar","pencil","clock"],"network":{"levels":[{"weights":[[2.04318343e-316,2.3237292924388018,9.857401370415666e-126,-1.6017265119361115,1.074632466851393,9.63778035e-316,1.9552168228192732,6.358679e-316,0.2667148830014049,-0.45830719333615666],[4.361970633e-315,-0.21182696818052033,-2.739166326670422e-131,2.8043456498024737,-2.330173101373962,2.043763294e-315,-1.9405384405273154,3.846259077e-315,-0.03126523371669464,-0.7787308912966651],[-4.29654411e-315,0.6161655362893582,-1.244056137827031e-274,-2.085968585654418,0.5349357796075953,-4.0524146e-316,-5.206379442857338,2.00370746e-315,3.20782211678475,-0.11966370347963019],[5.9559524e-316,-1.8286333351035113,1.1199673278391244e-28,1.392184020753416,2.4428087152501643,9.9263118e-316,1.9939223822176189,7.97161185e-316,-1.2129939676988268,-1.3645320316043321],[-4.21824103e-316,2.7719694774601895,1.167140775419034e-138,1.588426262526922,0.06658368901906116,-9.87536916e-316,2.1286193770773063,-3.40482472e-315,-2.0640641679331195,1.0812872338149107]],"biases":[-0.6079580527462108,1.3077626749018165,-0.41593799686351324,0.2135670915727781,-1.2394907087877403,-0.5649566583082877,0.12176104418343608,-0.44685693422048145,1.4874375171723226,1.9508141643977057],"inputs":[0.386,0.2097902097902098,0.050381345017563015,0.7645820602428008,0.21532825264972671],"outputs":[-0.6079580527462108,1.3900693073588761,-0.41593799686351324,1.4850029955497202,0.5954857734032866,-0.5649566583082877,2.1899335462271274,-0.44685693422048145,0.37355995736779235,0.7940436310621046]},{"weights":[[-2.64348578e-315,3.18718156e-316,1.220837896e-315,1.0729707e-316,1.50821131e-315,-1.25227647e-316,2.308132204e-315,2.225669663e-315],[1.2483057254721797,-0.5552408626359601,-0.7832394869824392,-1.398605077374481,-0.25490868596328253,2.5371839040242494,1.3038152337312006,-2.647343063627822],[-9.605428764309276e-199,1.5970665057937375e-230,-1.098841819870403e-227,1.17834405505348e-242,-1.524208267298494e-216,-3.8928067877541404e-227,-1.0637896910469702e-224,-3.350348341677447e-134],[-2.626730610460835,-0.9535429450027402,0.6329328198600915,2.0096906343208696,-0.9905014165713302,0.14275668763727206,-0.8551983076852542,2.447376570934198],[4.3287973902460415,0.6498319568347141,-3.2220289828943827,-4.83132161394413,0.1949839910263635,-2.51788255905774,-6.363125041631501,3.8758271261356807],[3.31383291e-315,1.75744663e-315,4.41903109e-315,-1.04207252e-315,1.18141963e-315,2.083328733e-315,3.873575146e-315,-1.7345949e-316],[1.3702809494068118,0.4547899007289954,1.0299445177783322,0.18459091128825958,1.929532978539012,-2.0155433356572816,-3.9377289512491966,0.025316117908587163],[-3.824411183e-315,2.1663836e-316,-1.955771176e-315,-2.72156743e-315,4.140895145e-315,4.090398755e-315,3.700686987e-315,3.511560244e-315],[-0.23982135528136572,2.651996223175536,-2.080782665475105,-0.5726614868982296,-2.5970985407716203,-0.09405538420790228,2.6091729587799266,-3.344890294133404],[-1.7036968949804407,1.1124332232755318,0.22603487323792515,-4.269800905671664,0.9430299825473059,1.5308100551439727,2.003001633127272,-3.01375205166346]],"biases":[-0.5313728469490051,-0.031194289191300583,-0.08469824456450743,-0.02537093358661471,-0.6751574336737237,-0.5074522699588428,0.7979532136667806,-0.8927718692571434],"inputs":[-0.6079580527462108,1.3900693073588761,-0.41593799686351324,1.4850029955497202,0.5954857734032866,-0.5649566583082877,2.1899335462271274,-0.44685693422048145,0.37355995736779235,0.7940436310621046],"outputs":[1.4393199599181736,1.037893757235061,-0.49452618514153185,-5.062205387230868,1.6198983774082865,-1.5014712473852232,-8.506987230087597,-2.217527837227647]}]}};